digraph Tree {
node [shape=box, style="filled, rounded", color="black", fontname=helvetica] ;
edge [fontname=helvetica] ;
0 [label=<X<SUB>0</SUB> &le; 37.5<br/>gini = 0.5<br/>samples = 41<br/>value = [28, 4, 4, 5]<br/>class = y<SUB>0</SUB>>, fillcolor="#e58139a3"] ;
1 [label=<gini = 0.0<br/>samples = 14<br/>value = [14, 0, 0, 0]<br/>class = y<SUB>0</SUB>>, fillcolor="#e58139ff"] ;
0 -> 1 [labeldistance=2.5, labelangle=45, headlabel="True"] ;
2 [label=<X<SUB>0</SUB> &le; 50.5<br/>gini = 0.653<br/>samples = 27<br/>value = [14, 4, 4, 5]<br/>class = y<SUB>0</SUB>>, fillcolor="#e5813968"] ;
0 -> 2 [labeldistance=2.5, labelangle=-45, headlabel="False"] ;
3 [label=<X<SUB>0</SUB> &le; 41.5<br/>gini = 0.663<br/>samples = 13<br/>value = [0, 4, 4, 5]<br/>class = y<SUB>3</SUB>>, fillcolor="#d739e51c"] ;
2 -> 3 ;
4 [label=<gini = 0.0<br/>samples = 4<br/>value = [0, 0, 0, 4]<br/>class = y<SUB>3</SUB>>, fillcolor="#d739e5ff"] ;
3 -> 4 ;
5 [label=<X<SUB>0</SUB> &le; 43.5<br/>gini = 0.593<br/>samples = 9<br/>value = [0, 4, 4, 1]<br/>class = y<SUB>1</SUB>>, fillcolor="#47e53900"] ;
3 -> 5 ;
6 [label=<gini = 0.0<br/>samples = 2<br/>value = [0, 2, 0, 0]<br/>class = y<SUB>1</SUB>>, fillcolor="#47e539ff"] ;
5 -> 6 ;
7 [label=<X<SUB>0</SUB> &le; 49.5<br/>gini = 0.571<br/>samples = 7<br/>value = [0, 2, 4, 1]<br/>class = y<SUB>2</SUB>>, fillcolor="#399de566"] ;
5 -> 7 ;
8 [label=<X<SUB>0</SUB> &le; 45.5<br/>gini = 0.444<br/>samples = 6<br/>value = [0, 2, 4, 0]<br/>class = y<SUB>2</SUB>>, fillcolor="#399de57f"] ;
7 -> 8 ;
9 [label=<gini = 0.0<br/>samples = 2<br/>value = [0, 0, 2, 0]<br/>class = y<SUB>2</SUB>>, fillcolor="#399de5ff"] ;
8 -> 9 ;
10 [label=<X<SUB>0</SUB> &le; 46.5<br/>gini = 0.5<br/>samples = 4<br/>value = [0, 2, 2, 0]<br/>class = y<SUB>1</SUB>>, fillcolor="#47e53900"] ;
8 -> 10 ;
11 [label=<gini = 0.0<br/>samples = 1<br/>value = [0, 1, 0, 0]<br/>class = y<SUB>1</SUB>>, fillcolor="#47e539ff"] ;
10 -> 11 ;
12 [label=<gini = 0.444<br/>samples = 3<br/>value = [0, 1, 2, 0]<br/>class = y<SUB>2</SUB>>, fillcolor="#399de57f"] ;
10 -> 12 ;
13 [label=<gini = 0.0<br/>samples = 1<br/>value = [0, 0, 0, 1]<br/>class = y<SUB>3</SUB>>, fillcolor="#d739e5ff"] ;
7 -> 13 ;
14 [label=<gini = 0.0<br/>samples = 14<br/>value = [14, 0, 0, 0]<br/>class = y<SUB>0</SUB>>, fillcolor="#e58139ff"] ;
2 -> 14 ;
}