digraph Tree {
node [shape=box, style="filled, rounded", color="black", fontname=helvetica] ;
edge [fontname=helvetica] ;
0 [label=<X<SUB>0</SUB> &le; 54.5<br/>gini = 0.414<br/>samples = 717<br/>value = [538, 57, 35, 87]<br/>class = y<SUB>0</SUB>>, fillcolor="#e58139b7"] ;
1 [label=<X<SUB>0</SUB> &le; 37.5<br/>gini = 0.517<br/>samples = 526<br/>value = [349, 57, 35, 85]<br/>class = y<SUB>0</SUB>>, fillcolor="#e5813999"] ;
0 -> 1 [labeldistance=2.5, labelangle=45, headlabel="True"] ;
2 [label=<X<SUB>0</SUB> &le; 36.5<br/>gini = 0.013<br/>samples = 152<br/>value = [151, 0, 0, 1]<br/>class = y<SUB>0</SUB>>, fillcolor="#e58139fd"] ;
1 -> 2 ;
3 [label=<gini = 0.0<br/>samples = 133<br/>value = [133, 0, 0, 0]<br/>class = y<SUB>0</SUB>>, fillcolor="#e58139ff"] ;
2 -> 3 ;
4 [label=<X<SUB>1</SUB> &le; 54.5<br/>gini = 0.1<br/>samples = 19<br/>value = [18, 0, 0, 1]<br/>class = y<SUB>0</SUB>>, fillcolor="#e58139f1"] ;
2 -> 4 ;
5 [label=<gini = 0.0<br/>samples = 9<br/>value = [9, 0, 0, 0]<br/>class = y<SUB>0</SUB>>, fillcolor="#e58139ff"] ;
4 -> 5 ;
6 [label=<X<SUB>1</SUB> &le; 55.5<br/>gini = 0.18<br/>samples = 10<br/>value = [9, 0, 0, 1]<br/>class = y<SUB>0</SUB>>, fillcolor="#e58139e3"] ;
4 -> 6 ;
7 [label=<gini = 0.0<br/>samples = 1<br/>value = [0, 0, 0, 1]<br/>class = y<SUB>3</SUB>>, fillcolor="#d739e5ff"] ;
6 -> 7 ;
8 [label=<gini = 0.0<br/>samples = 9<br/>value = [9, 0, 0, 0]<br/>class = y<SUB>0</SUB>>, fillcolor="#e58139ff"] ;
6 -> 8 ;
9 [label=<X<SUB>1</SUB> &le; 48.5<br/>gini = 0.637<br/>samples = 374<br/>value = [198, 57, 35, 84]<br/>class = y<SUB>0</SUB>>, fillcolor="#e5813964"] ;
1 -> 9 ;
10 [label=<gini = 0.0<br/>samples = 85<br/>value = [85, 0, 0, 0]<br/>class = y<SUB>0</SUB>>, fillcolor="#e58139ff"] ;
9 -> 10 ;
11 [label=<X<SUB>1</SUB> &le; 59.5<br/>gini = 0.709<br/>samples = 289<br/>value = [113, 57, 35, 84]<br/>class = y<SUB>0</SUB>>, fillcolor="#e5813924"] ;
9 -> 11 ;
12 [label=<X<SUB>0</SUB> &le; 51.5<br/>gini = 0.693<br/>samples = 187<br/>value = [18, 57, 35, 77]<br/>class = y<SUB>3</SUB>>, fillcolor="#d739e527"] ;
11 -> 12 ;
13 [label=<X<SUB>0</SUB> &le; 40.5<br/>gini = 0.694<br/>samples = 154<br/>value = [10, 55, 35, 54]<br/>class = y<SUB>1</SUB>>, fillcolor="#47e53903"] ;
12 -> 13 ;
14 [label=<X<SUB>1</SUB> &le; 50.5<br/>gini = 0.489<br/>samples = 33<br/>value = [8, 3, 0, 22]<br/>class = y<SUB>3</SUB>>, fillcolor="#d739e58f"] ;
13 -> 14 ;
15 [label=<gini = 0.278<br/>samples = 6<br/>value = [5, 0, 0, 1]<br/>class = y<SUB>0</SUB>>, fillcolor="#e58139cc"] ;
14 -> 15 ;
16 [label=<gini = 0.37<br/>samples = 27<br/>value = [3, 3, 0, 21]<br/>class = y<SUB>3</SUB>>, fillcolor="#d739e5bf"] ;
14 -> 16 ;
17 [label=<X<SUB>1</SUB> &le; 50.5<br/>gini = 0.661<br/>samples = 121<br/>value = [2, 52, 35, 32]<br/>class = y<SUB>1</SUB>>, fillcolor="#47e53932"] ;
13 -> 17 ;
18 [label=<gini = 0.43<br/>samples = 22<br/>value = [2, 4, 0, 16]<br/>class = y<SUB>3</SUB>>, fillcolor="#d739e5aa"] ;
17 -> 18 ;
19 [label=<gini = 0.614<br/>samples = 99<br/>value = [0, 48, 35, 16]<br/>class = y<SUB>1</SUB>>, fillcolor="#47e53934"] ;
17 -> 19 ;
20 [label=<X<SUB>1</SUB> &le; 50.5<br/>gini = 0.452<br/>samples = 33<br/>value = [8, 2, 0, 23]<br/>class = y<SUB>3</SUB>>, fillcolor="#d739e599"] ;
12 -> 20 ;
21 [label=<X<SUB>0</SUB> &le; 52.5<br/>gini = 0.278<br/>samples = 6<br/>value = [5, 0, 0, 1]<br/>class = y<SUB>0</SUB>>, fillcolor="#e58139cc"] ;
20 -> 21 ;
22 [label=<gini = 0.5<br/>samples = 2<br/>value = [1, 0, 0, 1]<br/>class = y<SUB>0</SUB>>, fillcolor="#e5813900"] ;
21 -> 22 ;
23 [label=<gini = 0.0<br/>samples = 4<br/>value = [4, 0, 0, 0]<br/>class = y<SUB>0</SUB>>, fillcolor="#e58139ff"] ;
21 -> 23 ;
24 [label=<X<SUB>1</SUB> &le; 57.5<br/>gini = 0.318<br/>samples = 27<br/>value = [3, 2, 0, 22]<br/>class = y<SUB>3</SUB>>, fillcolor="#d739e5ca"] ;
20 -> 24 ;
25 [label=<gini = 0.172<br/>samples = 21<br/>value = [0, 2, 0, 19]<br/>class = y<SUB>3</SUB>>, fillcolor="#d739e5e4"] ;
24 -> 25 ;
26 [label=<gini = 0.5<br/>samples = 6<br/>value = [3, 0, 0, 3]<br/>class = y<SUB>0</SUB>>, fillcolor="#e5813900"] ;
24 -> 26 ;
27 [label=<X<SUB>1</SUB> &le; 60.5<br/>gini = 0.128<br/>samples = 102<br/>value = [95, 0, 0, 7]<br/>class = y<SUB>0</SUB>>, fillcolor="#e58139ec"] ;
11 -> 27 ;
28 [label=<X<SUB>0</SUB> &le; 42.5<br/>gini = 0.484<br/>samples = 17<br/>value = [10, 0, 0, 7]<br/>class = y<SUB>0</SUB>>, fillcolor="#e581394d"] ;
27 -> 28 ;
29 [label=<gini = 0.0<br/>samples = 5<br/>value = [5, 0, 0, 0]<br/>class = y<SUB>0</SUB>>, fillcolor="#e58139ff"] ;
28 -> 29 ;
30 [label=<X<SUB>0</SUB> &le; 49.5<br/>gini = 0.486<br/>samples = 12<br/>value = [5, 0, 0, 7]<br/>class = y<SUB>3</SUB>>, fillcolor="#d739e549"] ;
28 -> 30 ;
31 [label=<gini = 0.0<br/>samples = 7<br/>value = [0, 0, 0, 7]<br/>class = y<SUB>3</SUB>>, fillcolor="#d739e5ff"] ;
30 -> 31 ;
32 [label=<gini = 0.0<br/>samples = 5<br/>value = [5, 0, 0, 0]<br/>class = y<SUB>0</SUB>>, fillcolor="#e58139ff"] ;
30 -> 32 ;
33 [label=<gini = 0.0<br/>samples = 85<br/>value = [85, 0, 0, 0]<br/>class = y<SUB>0</SUB>>, fillcolor="#e58139ff"] ;
27 -> 33 ;
34 [label=<X<SUB>0</SUB> &le; 55.5<br/>gini = 0.021<br/>samples = 191<br/>value = [189, 0, 0, 2]<br/>class = y<SUB>0</SUB>>, fillcolor="#e58139fc"] ;
0 -> 34 [labeldistance=2.5, labelangle=-45, headlabel="False"] ;
35 [label=<X<SUB>1</SUB> &le; 53.5<br/>gini = 0.159<br/>samples = 23<br/>value = [21, 0, 0, 2]<br/>class = y<SUB>0</SUB>>, fillcolor="#e58139e7"] ;
34 -> 35 ;
36 [label=<gini = 0.0<br/>samples = 11<br/>value = [11, 0, 0, 0]<br/>class = y<SUB>0</SUB>>, fillcolor="#e58139ff"] ;
35 -> 36 ;
37 [label=<X<SUB>1</SUB> &le; 55.5<br/>gini = 0.278<br/>samples = 12<br/>value = [10, 0, 0, 2]<br/>class = y<SUB>0</SUB>>, fillcolor="#e58139cc"] ;
35 -> 37 ;
38 [label=<gini = 0.0<br/>samples = 2<br/>value = [0, 0, 0, 2]<br/>class = y<SUB>3</SUB>>, fillcolor="#d739e5ff"] ;
37 -> 38 ;
39 [label=<gini = 0.0<br/>samples = 10<br/>value = [10, 0, 0, 0]<br/>class = y<SUB>0</SUB>>, fillcolor="#e58139ff"] ;
37 -> 39 ;
40 [label=<gini = 0.0<br/>samples = 168<br/>value = [168, 0, 0, 0]<br/>class = y<SUB>0</SUB>>, fillcolor="#e58139ff"] ;
34 -> 40 ;
}